{
  "cv.statename": [
    "Cell0.soma.v(0.5)",
    "Cell1.soma.v(0.5)",
    "ExpSyn[2].g",
    "ExpSyn[0].g",
    "ExpSyn[3].g",
    "ExpSyn[1].g",
    "Cell0.soma.m_hh(0.5)",
    "Cell0.soma.h_hh(0.5)",
    "Cell0.soma.n_hh(0.5)",
    "Cell1.soma.m_hh(0.5)",
    "Cell1.soma.h_hh(0.5)",
    "Cell1.soma.n_hh(0.5)"
  ],
  "cv.states": [
    -52.56915019288364,
    -64.97554915771914,
    0.0,
    0.0,
    0.0,
    0.0,
    0.15526244018443686,
    0.5507143232853652,
    0.3451711102968484,
    0.05305325627781504,
    0.5960693669188045,
    0.31771127129361837
  ],
  "cv.dstates": [
    12.366207188611789,
    0.02011923265881439,
    -0.0,
    -0.0,
    -0.0,
    -0.0,
    0.11092977761552453,
    -0.06416028033466402,
    0.036826999863115606,
    0.00013511580326666157,
    -9.442748798103862e-05,
    6.237597633092167e-05
  ],
  "cv.error_weights": [
    1000.0,
    1000.0,
    1000.0,
    1000.0,
    1000.0,
    1000.0,
    1000.0,
    1000.0,
    1000.0,
    1000.0,
    1000.0,
    1000.0
  ],
  "cv.acor": [
    0.0013309376181316142,
    -1.2803391296318743e-08,
    0.0,
    0.0,
    0.0,
    0.0,
    6.6246598443165175e-06,
    -2.3147493054086524e-06,
    9.917395969969089e-07,
    9.204792170098638e-10,
    -2.3004375027497064e-11,
    2.3749720020827986e-11
  ],
  "cv.statename lvardt": [
    "Cell0.soma.v(0.5)",
    "ExpSyn[2].g",
    "ExpSyn[0].g",
    "Cell0.soma.m_hh(0.5)",
    "Cell0.soma.h_hh(0.5)",
    "Cell0.soma.n_hh(0.5)",
    "Cell1.soma.v(0.5)",
    "ExpSyn[3].g",
    "ExpSyn[1].g",
    "Cell1.soma.m_hh(0.5)",
    "Cell1.soma.h_hh(0.5)",
    "Cell1.soma.n_hh(0.5)"
  ],
  "cv.states lvardt": [
    -52.556751629912945,
    0.0,
    0.0,
    0.15537064595973532,
    0.5506906013816929,
    0.3451862813940629,
    -64.97670673284887,
    0.0,
    0.0,
    0.0530492926609814,
    0.5960591577595183,
    0.3177175465913647
  ],
  "cv.dstates lvardt": [
    12.40286741907709,
    -0.0,
    -0.0,
    0.11118849853419506,
    -0.06425210339486709,
    0.03687327666674022,
    0.020258772081912287,
    -0.0,
    -0.0,
    0.00012128867605830228,
    -8.846993767685432e-05,
    5.797373671525566e-05
  ],
  "cv.error_weights lvardt": [
    1000.0,
    1000.0,
    1000.0,
    1000.0,
    1000.0,
    1000.0,
    1000.0,
    1000.0,
    1000.0,
    1000.0,
    1000.0,
    1000.0
  ],
  "cv.acor lvardt": [
    0.0015165351332186512,
    0.0,
    0.0,
    7.893058618725124e-06,
    -2.788901777989529e-06,
    1.1972425237004676e-06,
    -0.0007271442024934361,
    0.0,
    0.0,
    -8.615811648346098e-07,
    -7.290163596890982e-06,
    4.616408157291523e-06
  ],
  "AtolTool": [
    [
      "v",
      65.0,
      0.00187703630095626
    ],
    [
      "vext",
      -1000000000.0,
      -1000000000.0
    ],
    [
      "nai",
      -1000000000.0,
      -1000000000.0
    ],
    [
      "nao",
      -1000000000.0,
      -1000000000.0
    ],
    [
      "ki",
      -1000000000.0,
      -1000000000.0
    ],
    [
      "ko",
      -1000000000.0,
      -1000000000.0
    ],
    [
      "m_hh",
      0.15869553536795727,
      0.00016712701324188094
    ],
    [
      "h_hh",
      0.5961207535084603,
      2.0614893826950767e-05
    ],
    [
      "n_hh",
      0.34629304832291347,
      7.5189202567305286e-06
    ],
    [
      "ExpSyn.g",
      0.0,
      0.0
    ],
    [
      "Exp2Syn.A",
      -1000000000.0,
      -1000000000.0
    ],
    [
      "Exp2Syn.B",
      -1000000000.0,
      -1000000000.0
    ],
    [
      "VClamp.e",
      -1000000000.0,
      -1000000000.0
    ],
    [
      "VClamp.vo",
      -1000000000.0,
      -1000000000.0
    ],
    [
      "VClamp.vi",
      -1000000000.0,
      -1000000000.0
    ],
    [
      "Vector",
      -1000000000.0,
      -1000000000.0
    ]
  ],
  "state_magnitudes states": [
    65.0,
    65.0,
    0.0,
    0.0,
    0.0,
    0.0,
    0.15869553536795727,
    0.5961207535084603,
    0.34629304832291347,
    0.053057286843134016,
    0.5961207535084603,
    0.31771316009296613
  ],
  "state_magnitudes acor": [
    0.00187703630095626,
    1.3305439139589164e-06,
    0.0,
    0.0,
    0.0,
    0.0,
    0.00016712701324188094,
    2.0614893826950767e-05,
    7.5189202567305286e-06,
    9.795770257160691e-08,
    9.171206138868032e-09,
    6.21304356086902e-09
  ],
  "AtolTool lvardt": [
    [
      "v",
      65.0,
      0.0015165351332186512
    ],
    [
      "vext",
      -1000000000.0,
      -1000000000.0
    ],
    [
      "nai",
      -1000000000.0,
      -1000000000.0
    ],
    [
      "nao",
      -1000000000.0,
      -1000000000.0
    ],
    [
      "ki",
      -1000000000.0,
      -1000000000.0
    ],
    [
      "ko",
      -1000000000.0,
      -1000000000.0
    ],
    [
      "m_hh",
      0.15943774047102888,
      0.00018205280403388316
    ],
    [
      "h_hh",
      0.5961207535084603,
      1.536059852156204e-05
    ],
    [
      "n_hh",
      0.34650998769347674,
      8.148397108026221e-06
    ],
    [
      "ExpSyn.g",
      0.0,
      0.0
    ],
    [
      "Exp2Syn.A",
      -1000000000.0,
      -1000000000.0
    ],
    [
      "Exp2Syn.B",
      -1000000000.0,
      -1000000000.0
    ],
    [
      "VClamp.e",
      -1000000000.0,
      -1000000000.0
    ],
    [
      "VClamp.vo",
      -1000000000.0,
      -1000000000.0
    ],
    [
      "VClamp.vi",
      -1000000000.0,
      -1000000000.0
    ],
    [
      "Vector",
      -1000000000.0,
      -1000000000.0
    ]
  ],
  "state_magnitudes states lvardt": [
    65.0,
    0.0,
    0.0,
    0.15943774047102888,
    0.5961207535084603,
    0.34650998769347674,
    0.0,
    0.0,
    0.0,
    0.0,
    0.0,
    0.0
  ],
  "state_magnitudes acor lvardt": [
    0.0015165351332186512,
    0.0,
    0.0,
    0.00018205280403388316,
    1.536059852156204e-05,
    8.148397108026221e-06,
    0.0,
    0.0,
    0.0,
    0.0,
    0.0,
    0.0
  ],
  "record discrete tvec": [
    -55.73833959014465,
    -56.16269457449066,
    -56.3516105831247,
    -56.31586499025859,
    -56.09610128991302,
    -55.720713401617196,
    -55.196718148619745,
    -54.51912717017699
  ],
  "record discrete dt": [
    -65.0,
    -55.73833959014465,
    -56.16269457449066,
    -56.3516105831247,
    -56.31586499025859,
    -56.09610128991302,
    -55.720713401617196,
    -55.19671814861975,
    -54.51912717017699,
    -53.66214294823793,
    -52.56915019288365
  ],
  "record discrete savestate tvec": [
    -51.140993480829515,
    -49.20460254259869,
    -46.44948436293736,
    -42.25630675380093,
    -35.336614602375676,
    -22.831382830522298,
    -0.06750064895864982,
    27.690563157778776
  ],
  "record discrete savestate dt": [
    -65.0,
    -51.140993480829515,
    -49.20460254259869,
    -46.44948436293736,
    -42.25630675380093,
    -35.336614602375654,
    -22.83138283052226,
    -0.06750064895858676,
    27.690563157778826,
    38.76897882554628
  ],
  "rtol=0.001 atol=0 tvec": [
    0.0,
    0.02236067977538076,
    0.04472135955076152,
    0.1219190044369798,
    0.19911664932319806,
    0.27631429420941633,
    0.42695939217920337,
    0.5776044901489904,
    0.7282495881187774,
    0.8788946860885645,
    1.0295397840583516,
    1.1801848820281386,
    1.3308299799979257,
    1.4814750779677128,
    1.6321201759375,
    1.782765273907287,
    1.933410371877074,
    2.0
  ],
  "rtol=0.001 atol=0 vvec": [
    0.001,
    0.0009781283844168443,
    0.000956735136401906,
    0.0008864924820811945,
    0.0008208339646961824,
    0.0007598424282698836,
    0.0006531309234969456,
    0.000561199154196322,
    0.0004821344379982148,
    0.00041418309710490364,
    0.00035579966640500075,
    0.0003056427967938534,
    0.00026255538572055856,
    0.00022554174334754837,
    0.000193745944678334,
    0.0001664325166086807,
    0.00014296959483807464,
    0.00013365247855087568
  ],
  "rtol=0 atol=0.001 tvec": [
    0.0,
    0.0036865877408063983,
    0.582009367159784,
    1.5645270609956103,
    2.0
  ],
  "rtol=0 atol=0.001 vvec": [
    0.001,
    0.0009963269532682463,
    0.0006312567785627606,
    0.00025650358596811197,
    0.0001536542475067585
  ],
  "stiff=0 lvardt tvec size": 69,
  "stiff=0 tvec size": 73,
  "stiff=1 tvec size": 66,
  "stiff=2 tvec size": 71,
  "jacobian 2 tvec size": 93,
  "jacobian 1 tvec size": 78,
  "jacobian 0 tvec size": 71,
  "event queue spikes": [
    [
      10.986122886681098,
      12.527629684953682
    ],
    [
      0.0,
      1.0
    ]
  ],
  "print_event_queue": " NetCon[0] src=IntFire2[0] target=IntFire2[2] 13.9861228866811\n NetCon[1] src=IntFire2[0] target=IntFire2[2] 13.9861228866811\n SelfEvent target=IntFire2[2] 14.6633706879343 flag=1\n PreSyn src=IntFire2[1] 15.5276296849537\n SelfEvent target=IntFire2[0] 21.9722457733622 flag=1\n SelfEvent target=IntFire2[1] 25.0552593699074 flag=1\n",
  "print_event_queue tvec": [
    13.986122886681098,
    13.986122886681098,
    14.66337068793427,
    15.527629684953682,
    21.972245773362197,
    25.055259369907365
  ],
  "event_queue_info(2...)": [
    [
      13.986122886681098,
      13.986122886681098,
      15.527629684953682,
      15.527629684953682,
      15.527629684953682
    ],
    [
      "NetCon[0]",
      "NetCon[1]",
      "NetCon[4]",
      "NetCon[3]",
      "NetCon[2]"
    ]
  ],
  "event_queue_info(3...)": [
    [
      14.66337068793427,
      21.972245773362197,
      25.055259369907365
    ],
    [
      1.0,
      1.0,
      1.0
    ],
    [
      "IntFire2[2]",
      "IntFire2[0]",
      "IntFire2[1]"
    ]
  ],
  "SaveState restore at 13": [
    [
      14.709134369880251,
      21.972245773362197
    ],
    [
      2.0,
      0.0
    ]
  ],
  "store_events": [
    0.0,
    10.986122886681098,
    0.0,
    12.527629684953682,
    0.0,
    14.66337068793427,
    10.986122886681098,
    21.972245773362197,
    12.527629684953682,
    25.055259369907365
  ],
  "interthread debug_event 2 serial threads": "send NetParEvent 0 t=4.975 tt-t=4.975\nsend NetParEvent 1 t=4.975 tt-t=4.975\nsend PreSyn src=Cell0.soma 6.7250000001\ninterthread send td=6.7250000001 DE type=4 thread=1 target=-1 ?\ninterthread enqueue td=6.7250000001 DE type=4 thread=1 target=-1 ?\nsend PreSyn src=Cell0.soma 6.7250000001\ndeliver NetParEvent 1 t=4.975 tt-t=-3.73035e-14\nsend NetParEvent 1 t=9.95 tt-t=4.975\ndeliver NetParEvent 0 t=4.975 tt-t=-3.73035e-14\nsend NetParEvent 0 t=9.95 tt-t=4.975\ndeliver PreSyn src=Cell0.soma 6.7250000001\ndeliver PreSyn src=Cell0.soma 6.7250000001\ndeliver NetParEvent 1 t=9.95 tt-t=3.01981e-14\nsend NetParEvent 1 t=14.925 tt-t=4.975\ndeliver NetParEvent 0 t=9.95 tt-t=3.01981e-14\nsend NetParEvent 0 t=14.925 tt-t=4.975\n",
  "playrecord debug_event": "send PlayRecordEvent 0 VecPlayStep Vector[42].x[0]\ndeliver PlayRecordEvent 0 VecPlayStep Vector[42].x[0]\nsend PlayRecordEvent 1 VecPlayStep Vector[42].x[1]\nmicrostep retreat from 1 (cvode_0x... is at 1) for event onset=1\n"
}
